{"learner":{"attributes":{"scikit_learn":"{\"n_estimators\": 90, \"objective\": \"binary:logistic\", \"max_depth\": 2, \"learning_rate\": null, \"verbosity\": null, \"booster\": null, \"tree_method\": null, \"gamma\": 0.8, \"min_child_weight\": null, \"max_delta_step\": null, \"subsample\": 0.65, \"colsample_bytree\": null, \"colsample_bylevel\": null, \"colsample_bynode\": null, \"reg_alpha\": null, \"reg_lambda\": null, \"scale_pos_weight\": null, \"base_score\": null, \"missing\": NaN, \"num_parallel_tree\": null, \"kwargs\": {\"seed\": 8233}, \"random_state\": null, \"n_jobs\": null, \"monotone_constraints\": null, \"interaction_constraints\": null, \"importance_type\": \"gain\", \"gpu_id\": null, \"validate_parameters\": null, \"classes_\": [0, 1], \"n_classes_\": 2, \"_le\": {\"classes_\": [0, 1]}, \"_features_count\": 20, \"n_features_in_\": 20, \"type\": \"XGBClassifier\"}"},"gradient_booster":{"model":{"gbtree_model_param":{"num_trees":"90","size_leaf_vector":"0"},"tree_info":[0,0,0,0,0,0,0,0,0,0,0,0,0,0,0,0,0,0,0,0,0,0,0,0,0,0,0,0,0,0,0,0,0,0,0,0,0,0,0,0,0,0,0,0,0,0,0,0,0,0,0,0,0,0,0,0,0,0,0,0,0,0,0,0,0,0,0,0,0,0,0,0,0,0,0,0,0,0,0,0,0,0,0,0,0,0,0,0,0,0],"trees":[{"base_weights":[-6.496815E-1,2.857143E-1,-9.985444E-1,7.514451E-1,-6.2222224E-1,-1.0992126E0,2.1428572E-1],"default_left":[true,true,false,false,false,false,false],"id":0,"leaf_child_counts":[0,0,0,0,0,0,0],"left_children":[1,3,5,-1,-1,-1,-1],"loss_changes":[7.713481E1,2.7847363E1,2.1205078E1,0E0,0E0,0E0,0E0],"parents":[2147483647,0,0,1,1,2,2],"right_children":[2,4,6,-1,-1,-1,-1],"split_conditions":[-1.1108232E0,-6.659608E-1,2.1515632E0,2.2543354E-1,-1.8666668E-1,-3.297638E-1,6.428572E-2],"split_indices":[2,6,11,0,0,0,0],"sum_hessian":[2.345E2,6.375E1,1.7075E2,4.225E1,2.15E1,1.5775E2,1.3E1],"tree_param":{"num_deleted":"0","num_feature":"20","num_nodes":"7","size_leaf_vector":"0"}},{"base_weights":[-5.320742E-1,1.1573299E-1,-7.8749377E-1,5.2980876E-1,-4.304202E-1,1.0533952E-1,-8.672145E-1],"default_left":[true,true,true,false,false,false,false],"id":1,"leaf_child_counts":[0,0,0,0,0,0,0],"left_children":[1,3,5,-1,-1,-1,-1],"loss_changes":[3.950982E1,1.5660609E1,1.2262131E1,0E0,0E0,0E0,0E0],"parents":[2147483647,0,0,1,1,2,2],"right_children":[2,4,6,-1,-1,-1,-1],"split_conditions":[-1.1215304E0,-8.6544126E-1,-1.1269015E0,1.5894264E-1,-1.2912606E-1,3.1601857E-2,-2.6016435E-1],"split_indices":[2,6,0,0,0,0,0],"sum_hessian":[2.3723312E2,6.7240776E1,1.6999236E2,3.8261818E1,2.8978954E1,1.3908016E1,1.5608434E2],"tree_param":{"num_deleted":"0","num_feature":"20","num_nodes":"7","size_leaf_vector":"0"}},{"base_weights":[-3.5584876E-1,-4.3545306E-1,8.075913E-1,-4.8247264E-3,-6.093196E-1,-4.6433932E-1,1.0273218E0],"default_left":[true,true,false,false,false,false,false],"id":2,"leaf_child_counts":[0,0,0,0,0,0,0],"left_children":[1,3,5,-1,-1,-1,-1],"loss_changes":[2.1534214E1,1.6073498E1,4.668494E0,0E0,0E0,0E0,0E0],"parents":[2147483647,0,0,1,1,2,2],"right_children":[2,4,6,-1,-1,-1,-1],"split_conditions":[2.0941544E0,-1.0842876E0,1.6583953E-2,-1.447418E-3,-1.827959E-1,-1.393018E-1,3.0819654E-1],"split_indices":[15,11,13,0,0,0,0],"sum_hessian":[2.2771663E2,2.1371935E2,1.3997274E1,6.1766174E1,1.5195317E2,1.8978971E0,1.2099378E1],"tree_param":{"num_deleted":"0","num_feature":"20","num_nodes":"7","size_leaf_vector":"0"}},{"base_weights":[-1.8737385E-1,1.4838505E-1,-4.2434597E-1,7.7327895E-1,-1.4156981E-1,-5.32214E-1,9.019444E-1],"default_left":[true,false,false,false,false,false,false],"id":3,"leaf_child_counts":[0,0,0,0,0,0,0],"left_children":[1,3,5,-1,-1,-1,-1],"loss_changes":[1.7259853E1,1.6447197E1,1.8644392E1,0E0,0E0,0E0,0E0],"parents":[2147483647,0,0,1,1,2,2],"right_children":[2,4,6,-1,-1,-1,-1],"split_conditions":[-5.386293E-1,-9.390508E-1,2.403234E0,2.3198369E-1,-4.2470943E-2,-1.596642E-1,2.7058333E-1],"split_indices":[6,10,3,0,0,0,0],"sum_hessian":[2.1513495E2,8.916851E1,1.2596644E2,2.7733019E1,6.143549E1,1.1704575E2,8.920684E0],"tree_param":{"num_deleted":"0","num_feature":"20","num_nodes":"7","size_leaf_vector":"0"}},{"base_weights":[-1.9795953E-1,1.546057E-1,-3.8315022E-1,1.8999407E-2,1.2289221E0,-4.5210952E-1,7.774404E-1],"default_left":[true,true,true,false,false,false,false],"id":4,"leaf_child_counts":[0,0,0,0,0,0,0],"left_children":[1,3,5,-1,-1,-1,-1],"loss_changes":[1.4184024E1,1.0933939E1,1.1725899E1,0E0,0E0,0E0,0E0],"parents":[2147483647,0,0,1,1,2,2],"right_children":[2,4,6,-1,-1,-1,-1],"split_conditions":[-8.9057434E-1,1.7783494E0,1.988879E0,5.699822E-3,3.6867666E-1,-1.3563286E-1,2.3323214E-1],"split_indices":[6,13,12,0,0,0,0],"sum_hessian":[2.1533327E2,7.421267E1,1.4112059E2,6.679865E1,7.4140177E0,1.3378206E2,7.338536E0],"tree_param":{"num_deleted":"0","num_feature":"20","num_nodes":"7","size_leaf_vector":"0"}},{"base_weights":[-5.5637017E-2,-2.431347E-1,3.4440765E-1,4.2774233E-1,-4.16926E-1,5.3584224E-1,-5.3415316E-1],"default_left":[false,false,true,false,false,false,false],"id":5,"leaf_child_counts":[0,0,0,0,0,0,0],"left_children":[1,3,5,-1,-1,-1,-1],"loss_changes":[1.6322807E1,1.743356E1,1.1975811E1,0E0,0E0,0E0,0E0],"parents":[2147483647,0,0,1,1,2,2],"right_children":[2,4,6,-1,-1,-1,-1],"split_conditions":[1.2095151E0,-1.2335353E0,6.5610206E-1,1.283227E-1,-1.250778E-1,1.6075268E-1,-1.6024595E-1],"split_indices":[5,11,16,0,0,0,0],"sum_hessian":[2.1549942E2,1.4699588E2,6.850355E1,2.9943882E1,1.17051994E2,5.656777E1,1.19357815E1],"tree_param":{"num_deleted":"0","num_feature":"20","num_nodes":"7","size_leaf_vector":"0"}},{"base_weights":[-1.1344692E-1,3.554945E-1,-2.31382E-1,9.045636E-1,-1.537218E-2,-3.8130337E-1,2.7640375E-1],"default_left":[false,false,true,false,false,false,false],"id":6,"leaf_child_counts":[0,0,0,0,0,0,0],"left_children":[1,3,5,-1,-1,-1,-1],"loss_changes":[1.10696125E1,8.223856E0,1.2236534E1,0E0,0E0,0E0,0E0],"parents":[2147483647,0,0,1,1,2,2],"right_children":[2,4,6,-1,-1,-1,-1],"split_conditions":[-9.326297E-1,-6.291252E-1,8.6925113E-1,2.713691E-1,-4.611654E-3,-1.14391014E-1,8.292113E-2],"split_indices":[12,18,15,0,0,0,0],"sum_hessian":[1.976697E2,3.9317696E1,1.58352E2,1.5270551E1,2.4047144E1,1.22448685E2,3.5903316E1],"tree_param":{"num_deleted":"0","num_feature":"20","num_nodes":"7","size_leaf_vector":"0"}},{"base_weights":[-8.1163615E-2,3.1433263E-1,-2.5789943E-1,9.421087E-1,-5.1007513E-2,-3.017582E-1,1.3187895E0],"default_left":[false,false,true,false,false,false,false],"id":7,"leaf_child_counts":[0,0,0,0,0,0,0],"left_children":[1,3,5,-1,-1,-1,-1],"loss_changes":[1.405109E1,1.4308862E1,9.988124E0,0E0,0E0,0E0,0E0],"parents":[2147483647,0,0,1,1,2,2],"right_children":[2,4,6,-1,-1,-1,-1],"split_conditions":[-6.92762E-1,-8.702072E-1,2.855863E0,2.8263262E-1,-1.5302255E-2,-9.052746E-2,3.9563686E-1],"split_indices":[10,14,10,0,0,0,0],"sum_hessian":[1.9886198E2,6.1178745E1,1.3768324E2,2.192521E1,3.9253536E1,1.347437E2,2.939552E0],"tree_param":{"num_deleted":"0","num_feature":"20","num_nodes":"7","size_leaf_vector":"0"}},{"base_weights":[-5.2390862E-2,-1.4971909E-1,6.0566926E-1,1.7652608E-1,-3.398886E-1,1.0876224E-1,1.2198148E0],"default_left":[false,false,true,false,false,false,false],"id":8,"leaf_child_counts":[0,0,0,0,0,0,0],"left_children":[1,3,5,-1,-1,-1,-1],"loss_changes":[1.2452741E1,1.0541724E1,7.517111E0,0E0,0E0,0E0,0E0],"parents":[2147483647,0,0,1,1,2,2],"right_children":[2,4,6,-1,-1,-1,-1],"split_conditions":[1.9695098E0,-6.2592745E-1,-1.902109E0,5.295783E-2,-1.0196658E-1,3.2628674E-2,3.6594445E-1],"split_indices":[12,2,15,0,0,0,0],"sum_hessian":[1.9201295E2,1.6794594E2,2.406701E1,6.1872448E1,1.06073494E2,1.3953936E1,1.0113076E1],"tree_param":{"num_deleted":"0","num_feature":"20","num_nodes":"7","size_leaf_vector":"0"}},{"base_weights":[-7.09093E-2,-1.8867198E0,-3.0649686E-2,-7.618672E-2,1.2131413E0],"default_left":[false,false,true,false,false],"id":9,"leaf_child_counts":[0,0,0,0,0],"left_children":[1,-1,3,-1,-1],"loss_changes":[1.3698463E1,0E0,1.0576762E1,0E0,0E0],"parents":[2147483647,0,0,2,2],"right_children":[2,-1,4,-1,-1],"split_conditions":[-2.5822883E0,-5.6601596E-1,2.664112E0,-2.2856016E-2,3.639424E-1],"split_indices":[8,0,7,0,0],"sum_hessian":[1.871747E2,3.0651426E0,1.8410956E2,1.7851268E2,5.596868E0],"tree_param":{"num_deleted":"0","num_feature":"20","num_nodes":"5","size_leaf_vector":"0"}},{"base_weights":[-8.101969E-2,-1.4338435E-1,1.2060659E0,3.8082126E-1,-2.6888415E-1,1.6723386E0,-9.974594E-2],"default_left":[true,false,false,false,false,false,false],"id":10,"leaf_child_counts":[0,0,0,0,0,0,0],"left_children":[1,3,5,-1,-1,-1,-1],"loss_changes":[1.5719879E1,1.2314502E1,5.681567E0,0E0,0E0,0E0,0E0],"parents":[2147483647,0,0,1,1,2,2],"right_children":[2,4,6,-1,-1,-1,-1],"split_conditions":[3.2190332E0,-1.2335353E0,4.9675933E-1,1.1424638E-1,-8.0665246E-2,5.017016E-1,-2.9923782E-2],"split_indices":[1,3,4,0,0,0,0],"sum_hessian":[1.9268642E2,1.8462897E2,8.0574465E0,3.527072E1,1.4935825E2,5.730529E0,2.3269174E0],"tree_param":{"num_deleted":"0","num_feature":"20","num_nodes":"7","size_leaf_vector":"0"}},{"base_weights":[2.6164375E-2,-8.355174E-2,6.9524175E-1,5.60551E-1,-1.8415345E-1,1.2960306E0,-6.924361E-2],"default_left":[true,false,true,false,false,false,false],"id":11,"leaf_child_counts":[0,0,0,0,0,0,0],"left_children":[1,3,5,-1,-1,-1,-1],"loss_changes":[1.4284945E1,1.0949962E1,1.2679125E1,0E0,0E0,0E0,0E0],"parents":[2147483647,0,0,1,1,2,2],"right_children":[2,4,6,-1,-1,-1,-1],"split_conditions":[1.2554606E0,-1.9374063E0,3.9813793E-1,1.681653E-1,-5.5246036E-2,3.888092E-1,-2.0773083E-2],"split_indices":[11,13,8,0,0,0,0],"sum_hessian":[1.9280374E2,1.6639346E2,2.6410276E1,2.1860374E1,1.4453308E2,1.4399103E1,1.2011172E1],"tree_param":{"num_deleted":"0","num_feature":"20","num_nodes":"7","size_leaf_vector":"0"}},{"base_weights":[1.273259E-2,5.3659195E-1,-8.972857E-2,7.7411884E-1,-5.7923E-1,-1.6167064E-1,8.4649295E-1],"default_left":[false,false,true,false,false,false,false],"id":12,"leaf_child_counts":[0,0,0,0,0,0,0],"left_children":[1,3,5,-1,-1,-1,-1],"loss_changes":[1.0247874E1,8.725557E0,1.089974E1,0E0,0E0,0E0,0E0],"parents":[2147483647,0,0,1,1,2,2],"right_children":[2,4,6,-1,-1,-1,-1],"split_conditions":[-1.4161806E0,5.4713935E-1,1.7934339E0,2.3223566E-1,-1.7376901E-1,-4.8501194E-2,2.5394788E-1],"split_indices":[7,5,8,0,0,0,0],"sum_hessian":[1.8902664E2,3.0230143E1,1.5879651E2,2.5176924E1,5.0532193E0,1.4823314E2,1.0563362E1],"tree_param":{"num_deleted":"0","num_feature":"20","num_nodes":"7","size_leaf_vector":"0"}},{"base_weights":[3.6477223E-2,-3.834771E-2,1.3933693E0,-2.2403862E-1,2.633954E-1,1.8087134E0,-2.480236E-1],"default_left":[true,false,true,false,false,false,false],"id":13,"leaf_child_counts":[0,0,0,0,0,0,0],"left_children":[1,3,5,-1,-1,-1,-1],"loss_changes":[1.9284246E1,1.0171783E1,7.215494E0,0E0,0E0,0E0,0E0],"parents":[2147483647,0,0,1,1,2,2],"right_children":[2,4,6,-1,-1,-1,-1],"split_conditions":[1.9671154E0,9.3306893E-1,4.9503988E-1,-6.721159E-2,7.901862E-2,5.4261404E-1,-7.4407086E-2],"split_indices":[16,1,2,0,0,0,0],"sum_hessian":[1.8841135E2,1.7948547E2,8.925871E0,1.1126882E2,6.821665E1,7.041999E0,1.8838716E0],"tree_param":{"num_deleted":"0","num_feature":"20","num_nodes":"7","size_leaf_vector":"0"}},{"base_weights":[-3.6217775E-2,-1.1835642E0,6.461516E-3,-1.5559356E0,-1.531709E-1,5.378632E-1,-1.3851964E-1],"default_left":[false,true,false,false,false,false,false],"id":14,"leaf_child_counts":[0,0,0,0,0,0,0],"left_children":[1,3,5,-1,-1,-1,-1],"loss_changes":[9.20096E0,2.3472118E0,1.4096594E1,0E0,0E0,0E0,0E0],"parents":[2147483647,0,0,1,1,2,2],"right_children":[2,4,6,-1,-1,-1,-1],"split_conditions":[-1.9268112E0,-2.912346E0,-8.847301E-1,-4.667807E-1,-4.595127E-2,1.6135897E-1,-4.1555896E-2],"split_indices":[12,13,14,0,0,0,0],"sum_hessian":[1.8674149E2,5.738623E0,1.8100287E2,3.8406277E0,1.8979956E0,3.8216705E1,1.4278616E2],"tree_param":{"num_deleted":"0","num_feature":"20","num_nodes":"7","size_leaf_vector":"0"}},{"base_weights":[3.8904954E-2,3.2869697E-1,-2.657188E-1,-1.3027612E0,3.7605625E-1,-4.10859E-1,5.687955E-1],"default_left":[true,false,false,false,false,false,false],"id":15,"leaf_child_counts":[0,0,0,0,0,0,0],"left_children":[1,3,5,-1,-1,-1,-1],"loss_changes":[1.6330442E1,7.8101864E0,1.1165837E1,0E0,0E0,0E0,0E0],"parents":[2147483647,0,0,1,1,2,2],"right_children":[2,4,6,-1,-1,-1,-1],"split_conditions":[-4.4947386E-1,-2.7198942E0,3.2190332E0,-3.9082837E-1,1.1281688E-1,-1.23257704E-1,1.7063865E-1],"split_indices":[3,16,1,0,0,0,0],"sum_hessian":[1.830004E2,9.374279E1,8.925761E1,1.8966868E0,9.184611E1,7.646615E1,1.2791459E1],"tree_param":{"num_deleted":"0","num_feature":"20","num_nodes":"7","size_leaf_vector":"0"}},{"base_weights":[-1.1527681E-1,-1.4937471E-1,1.0374048E0,2.0950794E-1,-2.6610735E-1,1.3529701E0,-2.0818941E-2],"default_left":[true,true,true,false,false,false,false],"id":16,"leaf_child_counts":[0,0,0,0,0,0,0],"left_children":[1,3,5,-1,-1,-1,-1],"loss_changes":[7.1860886E0,7.37138E0,1.7865744E0,0E0,0E0,0E0,0E0],"parents":[2147483647,0,0,1,1,2,2],"right_children":[2,4,6,-1,-1,-1,-1],"split_conditions":[2.8043888E0,-1.414954E0,9.368762E-1,6.285238E-2,-7.983221E-2,4.0589106E-1,-6.2456825E-3],"split_indices":[3,7,6,0,0,0,0],"sum_hessian":[1.7789082E2,1.7362517E2,4.2656574E0,4.2418633E1,1.3120653E2,3.0712674E0,1.1943899E0],"tree_param":{"num_deleted":"0","num_feature":"20","num_nodes":"7","size_leaf_vector":"0"}},{"base_weights":[-4.4177517E-2,-1.5411684E-1,4.0456617E-1,-1.922946E-1,1.3818779E0,6.2488383E-1,-4.43877E-1],"default_left":[true,true,true,false,false,false,false],"id":17,"leaf_child_counts":[0,0,0,0,0,0,0],"left_children":[1,3,5,-1,-1,-1,-1],"loss_changes":[9.106934E0,8.943346E0,7.072614E0,0E0,0E0,0E0,0E0],"parents":[2147483647,0,0,1,1,2,2],"right_children":[2,4,6,-1,-1,-1,-1],"split_conditions":[9.550719E-1,2.8087227E0,2.3714867E0,-5.768838E-2,4.145634E-1,1.8746516E-1,-1.3316311E-1],"split_indices":[11,1,1,0,0,0,0],"sum_hessian":[1.8233153E2,1.4697914E2,3.5352386E1,1.4426811E2,2.7110326E0,2.8273912E1,7.0784736E0],"tree_param":{"num_deleted":"0","num_feature":"20","num_nodes":"7","size_leaf_vector":"0"}},{"base_weights":[-5.495837E-4,2.1841943E-1,-1.4080538E-1,-6.1885715E-1,3.4234402E-1,-1.8856981E-1,1.0852609E0],"default_left":[true,false,true,false,false,false,false],"id":18,"leaf_child_counts":[0,0,0,0,0,0,0],"left_children":[1,3,5,-1,-1,-1,-1],"loss_changes":[5.4690766E0,7.4262176E0,6.561409E0,0E0,0E0,0E0,0E0],"parents":[2147483647,0,0,1,1,2,2],"right_children":[2,4,6,-1,-1,-1,-1],"split_conditions":[-7.1702075E-1,-1.5148122E0,2.5941174E0,-1.8565714E-1,1.02703206E-1,-5.6570947E-2,3.2557827E-1],"split_indices":[15,6,8,0,0,0,0],"sum_hessian":[1.760767E2,6.852982E1,1.0754688E2,8.32042E0,6.0209408E1,1.043287E2,3.218183E0],"tree_param":{"num_deleted":"0","num_feature":"20","num_nodes":"7","size_leaf_vector":"0"}},{"base_weights":[4.2534475E-3,1.1515104E-1,-3.390438E-1,-1.220063E0,1.4564678E-1,-1.0566535E0,3.958016E-2],"default_left":[false,false,false,false,false,false,false],"id":19,"leaf_child_counts":[0,0,0,0,0,0,0],"left_children":[1,3,5,-1,-1,-1,-1],"loss_changes":[6.612268E0,5.5218835E0,1.1564848E1,0E0,0E0,0E0,0E0],"parents":[2147483647,0,0,1,1,2,2],"right_children":[2,4,6,-1,-1,-1,-1],"split_conditions":[1.0258136E0,-3.4084558E0,-6.001961E-1,-3.660189E-1,4.3694034E-2,-3.1699607E-1,1.1874048E-2],"split_indices":[2,13,17,0,0,0,0],"sum_hessian":[1.7165779E2,1.3024762E2,4.141018E1,2.037351E0,1.2821027E2,1.3683995E1,2.7726185E1],"tree_param":{"num_deleted":"0","num_feature":"20","num_nodes":"7","size_leaf_vector":"0"}},{"base_weights":[2.5222935E-2,2.8529918E-1,-1.16010204E-1,4.1054353E-1,-5.200895E-1,4.121353E-2,-4.087015E-1],"default_left":[false,true,true,false,false,false,false],"id":20,"leaf_child_counts":[0,0,0,0,0,0,0],"left_children":[1,3,5,-1,-1,-1,-1],"loss_changes":[6.7351584E0,6.7199516E0,5.491081E0,0E0,0E0,0E0,0E0],"parents":[2147483647,0,0,1,1,2,2],"right_children":[2,4,6,-1,-1,-1,-1],"split_conditions":[-6.1612415E-1,1.8053952E-1,2.0993139E-1,1.2316307E-1,-1.5602686E-1,1.236406E-2,-1.2261046E-1],"split_indices":[2,0,11,0,0,0,0],"sum_hessian":[1.8146144E2,6.3502884E1,1.1795856E2,5.5380955E1,8.121926E0,7.729664E1,4.0661915E1],"tree_param":{"num_deleted":"0","num_feature":"20","num_nodes":"7","size_leaf_vector":"0"}},{"base_weights":[5.2045863E-2,-2.1893311E-2,8.380962E-1,-1.1095992E0,2.6406797E-2,1.2013677E0,-2.939564E-1],"default_left":[true,false,true,false,false,false,false],"id":21,"leaf_child_counts":[0,0,0,0,0,0,0],"left_children":[1,3,5,-1,-1,-1,-1],"loss_changes":[9.996501E0,8.324575E0,6.4338417E0,0E0,0E0,0E0,0E0],"parents":[2147483647,0,0,1,1,2,2],"right_children":[2,4,6,-1,-1,-1,-1],"split_conditions":[1.5707726E0,-1.9268112E0,1.0582466E0,-3.3287978E-1,7.922039E-3,3.6041033E-1,-8.818692E-2],"split_indices":[4,12,18,0,0,0,0],"sum_hessian":[1.7068216E2,1.5689601E2,1.3786146E1,5.736585E0,1.5115944E2,1.0390609E1,3.395538E0],"tree_param":{"num_deleted":"0","num_feature":"20","num_nodes":"7","size_leaf_vector":"0"}},{"base_weights":[2.2851657E-2,2.022087E-1,-2.9998782E-1,6.401657E-1,-3.218695E-2,7.244151E-1,-4.447699E-1],"default_left":[true,true,true,false,false,false,false],"id":22,"leaf_child_counts":[0,0,0,0,0,0,0],"left_children":[1,3,5,-1,-1,-1,-1],"loss_changes":[1.0331177E1,1.1787191E1,9.777369E0,0E0,0E0,0E0,0E0],"parents":[2147483647,0,0,1,1,2,2],"right_children":[2,4,6,-1,-1,-1,-1],"split_conditions":[1.5147722E-1,-9.340739E-1,-1.6818084E0,1.9204971E-1,-9.656086E-3,2.1732454E-1,-1.3343097E-1],"split_indices":[14,0,19,0,0,0,0],"sum_hessian":[1.763729E2,1.1362238E2,6.2750515E1,3.9007534E1,7.4614845E1,7.27474E0,5.5475773E1],"tree_param":{"num_deleted":"0","num_feature":"20","num_nodes":"7","size_leaf_vector":"0"}},{"base_weights":[7.7881403E-3,-4.934213E-2,5.728373E-1,-8.033289E-2,1.0315107E0,-2.535346E-1,1.0009781E0],"default_left":[true,true,false,false,false,false,false],"id":23,"leaf_child_counts":[0,0,0,0,0,0,0],"left_children":[1,3,5,-1,-1,-1,-1],"loss_changes":[5.6445603E0,5.4062777E0,5.933948E0,0E0,0E0,0E0,0E0],"parents":[2147483647,0,0,1,1,2,2],"right_children":[2,4,6,-1,-1,-1,-1],"split_conditions":[1.4989636E0,2.664112E0,1.2658736E0,-2.4099868E-2,3.0945322E-1,-7.606038E-2,3.0029345E-1],"split_indices":[3,7,1,0,0,0,0],"sum_hessian":[1.7297926E2,1.579247E2,1.5054572E1,1.5442268E2,3.5020092E0,5.277016E0,9.777556E0],"tree_param":{"num_deleted":"0","num_feature":"20","num_nodes":"7","size_leaf_vector":"0"}},{"base_weights":[-3.9380454E-2,-1.0489248E0,3.3200174E-3,-1.6769118E0,3.5216074E-2,-1.0736465E0,4.1363776E-2],"default_left":[false,false,false,false,false,false,false],"id":24,"leaf_child_counts":[0,0,0,0,0,0,0],"left_children":[1,3,5,-1,-1,-1,-1],"loss_changes":[7.6540704E0,4.964509E0,7.061647E0,0E0,0E0,0E0,0E0],"parents":[2147483647,0,0,1,1,2,2],"right_children":[2,4,6,-1,-1,-1,-1],"split_conditions":[-2.9377007E0,-1.4826626E-1,-2.0423946E0,-5.030736E-1,1.0564823E-2,-3.2209396E-1,1.2409133E-2],"split_indices":[5,14,16,0,0,0,0],"sum_hessian":[1.7647484E2,6.2051473E0,1.7026968E2,3.5829582E0,2.6221893E0,4.880759E0,1.6538893E2],"tree_param":{"num_deleted":"0","num_feature":"20","num_nodes":"7","size_leaf_vector":"0"}},{"base_weights":[6.2300548E-2,1.5912074E-1,-3.9485076E-1,8.2423575E-2,8.148582E-1,-7.423718E-1,4.4969383E-1],"default_left":[true,true,false,false,false,false,false],"id":25,"leaf_child_counts":[0,0,0,0,0,0,0],"left_children":[1,3,5,-1,-1,-1,-1],"loss_changes":[7.6264815E0,7.0609913E0,9.183868E0,0E0,0E0,0E0,0E0],"parents":[2147483647,0,0,1,1,2,2],"right_children":[2,4,6,-1,-1,-1,-1],"split_conditions":[7.984884E-1,4.0307003E-1,1.1092714E0,2.4727074E-2,2.4445747E-1,-2.2271155E-1,1.3490815E-1],"split_indices":[6,6,12,0,0,0,0],"sum_hessian":[1.6988567E2,1.4073195E2,2.9153725E1,1.2700297E2,1.3728982E1,2.0740295E1,8.413429E0],"tree_param":{"num_deleted":"0","num_feature":"20","num_nodes":"7","size_leaf_vector":"0"}},{"base_weights":[-2.439581E-2,-1.0254102E0,1.1817308E-2,-1.4423579E0,4.3285927E-1,9.2422336E-1,-4.4958394E-2],"default_left":[false,true,false,false,false,false,false],"id":26,"leaf_child_counts":[0,0,0,0,0,0,0],"left_children":[1,3,5,-1,-1,-1,-1],"loss_changes":[6.369786E0,4.35435E0,8.860927E0,0E0,0E0,0E0,0E0],"parents":[2147483647,0,0,1,1,2,2],"right_children":[2,4,6,-1,-1,-1,-1],"split_conditions":[-2.9873676E0,6.741805E-1,-2.3074322E0,-4.327074E-1,1.298578E-1,2.77267E-1,-1.3487519E-2],"split_indices":[13,16,13,0,0,0,0],"sum_hessian":[1.7438467E2,5.134665E0,1.6925E2,4.0014763E0,1.133189E0,9.019815E0,1.602302E2],"tree_param":{"num_deleted":"0","num_feature":"20","num_nodes":"7","size_leaf_vector":"0"}},{"base_weights":[1.8261634E-2,-1.360322E0,5.367047E-2,1.6796687E-1,-2.704208E-1],"default_left":[false,false,false,false,false],"id":27,"leaf_child_counts":[0,0,0,0,0],"left_children":[1,-1,3,-1,-1],"loss_changes":[8.72978E0,0E0,6.4857326E0,0E0,0E0],"parents":[2147483647,0,0,2,2],"right_children":[2,-1,4,-1,-1],"split_conditions":[-2.392847E0,-4.080966E-1,8.0675733E-1,5.0390065E-2,-8.112624E-2],"split_indices":[0,0,18,0,0],"sum_hessian":[1.7634181E2,3.4789047E0,1.728629E2,1.2815024E2,4.4712673E1],"tree_param":{"num_deleted":"0","num_feature":"20","num_nodes":"5","size_leaf_vector":"0"}},{"base_weights":[1.0869975E-2,5.3148717E-1,-1.0254965E-1,-9.88624E-1,6.816528E-1,5.9224266E-1,-1.7645514E-1],"default_left":[false,false,false,false,false,false,false],"id":28,"leaf_child_counts":[0,0,0,0,0,0,0],"left_children":[1,3,5,-1,-1,-1,-1],"loss_changes":[1.047314E1,7.9156466E0,7.5869823E0,0E0,0E0,0E0,0E0],"parents":[2147483647,0,0,1,1,2,2],"right_children":[2,4,6,-1,-1,-1,-1],"split_conditions":[-9.698237E-1,-2.651472E0,-2.0194743E0,-2.965872E-1,2.0449585E-1,1.776728E-1,-5.2936543E-2],"split_indices":[16,16,17,0,0,0,0],"sum_hessian":[1.7544289E2,3.0724712E1,1.4471819E2,2.2603056E0,2.8464407E1,1.3239444E1,1.3147873E2],"tree_param":{"num_deleted":"0","num_feature":"20","num_nodes":"7","size_leaf_vector":"0"}},{"base_weights":[-5.684223E-3,-8.669163E-2,5.2486163E-1,-2.0569849E-1,2.9927394E-1,1.0221508E0,-1.4474007E-2],"default_left":[false,false,false,false,false,false,false],"id":29,"leaf_child_counts":[0,0,0,0,0,0,0],"left_children":[1,3,5,-1,-1,-1,-1],"loss_changes":[7.6480017E0,7.1498275E0,6.3372655E0,0E0,0E0,0E0,0E0],"parents":[2147483647,0,0,1,1,2,2],"right_children":[2,4,6,-1,-1,-1,-1],"split_conditions":[2.347567E0,7.1252406E-1,2.4335863E-1,-6.170955E-2,8.9782186E-2,3.0664524E-1,-4.3422026E-3],"split_indices":[11,3,0,0,0,0,0],"sum_hessian":[1.7589224E2,1.5331903E2,2.257321E1,1.1754332E2,3.577571E1,1.1278644E1,1.1294567E1],"tree_param":{"num_deleted":"0","num_feature":"20","num_nodes":"7","size_leaf_vector":"0"}},{"base_weights":[1.4531986E-3,9.9378884E-1,-2.42066E-2,-4.9042183E-1,1.6508858E0,-9.342505E-2,3.299883E-1],"default_left":[false,true,false,false,false,false,false],"id":30,"leaf_child_counts":[0,0,0,0,0,0,0],"left_children":[1,3,5,-1,-1,-1,-1],"loss_changes":[4.6067414E0,5.2570806E0,4.3559184E0,0E0,0E0,0E0,0E0],"parents":[2147483647,0,0,1,1,2,2],"right_children":[2,4,6,-1,-1,-1,-1],"split_conditions":[-3.1823244E0,-1.4203472E0,1.7996418E0,-1.4712656E-1,4.9526575E-1,-2.8027516E-2,9.89965E-2],"split_indices":[1,16,0,0,0,0,0],"sum_hessian":[1.7897333E2,3.5602229E0,1.7541312E2,1.1703535E0,2.3898692E0,1.4735294E2,2.8060179E1],"tree_param":{"num_deleted":"0","num_feature":"20","num_nodes":"7","size_leaf_vector":"0"}},{"base_weights":[-2.3356713E-2,1.0848131E-1,-2.8967834E-1,2.5078535E-1,-5.1799184E-1,-3.9433146E-1,7.997334E-1],"default_left":[true,false,false,false,false,false,false],"id":31,"leaf_child_counts":[0,0,0,0,0,0,0],"left_children":[1,3,5,-1,-1,-1,-1],"loss_changes":[6.020484E0,1.0366158E1,6.78573E0,0E0,0E0,0E0,0E0],"parents":[2147483647,0,0,1,1,2,2],"right_children":[2,4,6,-1,-1,-1,-1],"split_conditions":[2.077654E-1,1.330369E0,1.7292085E0,7.5235605E-2,-1.5539756E-1,-1.1829944E-1,2.3992004E-1],"split_indices":[14,6,16,0,0,0,0],"sum_hessian":[1.6957347E2,1.13820984E2,5.5752483E1,9.32409E1,2.0580084E1,5.1448204E1,4.3042817E0],"tree_param":{"num_deleted":"0","num_feature":"20","num_nodes":"7","size_leaf_vector":"0"}},{"base_weights":[-3.999858E-3,1.8250233E-1,-2.943967E-1,3.317461E-1,-1.5349989E-1,6.4846104E-1,-3.8054448E-1],"default_left":[true,true,false,false,false,false,false],"id":32,"leaf_child_counts":[0,0,0,0,0,0,0],"left_children":[1,3,5,-1,-1,-1,-1],"loss_changes":[9.707804E0,5.5248823E0,5.9400177E0,0E0,0E0,0E0,0E0],"parents":[2147483647,0,0,1,1,2,2],"right_children":[2,4,6,-1,-1,-1,-1],"split_conditions":[-1.1259237E-1,3.7724696E-2,-1.6633081E0,9.9523835E-2,-4.6049967E-2,1.9453833E-1,-1.1416335E-1],"split_indices":[2,4,15,0,0,0,0],"sum_hessian":[1.7725218E2,1.08159935E2,6.909225E1,7.49027E1,3.3257233E1,5.2379017E0,6.3854343E1],"tree_param":{"num_deleted":"0","num_feature":"20","num_nodes":"7","size_leaf_vector":"0"}},{"base_weights":[-1.22530935E-2,-6.2466662E-2,9.739455E-1,6.4391196E-2,-4.1106772E-1,-1.8311253E-2,1.5264926E0],"default_left":[true,true,false,false,false,false,false],"id":33,"leaf_child_counts":[0,0,0,0,0,0,0],"left_children":[1,3,5,-1,-1,-1,-1],"loss_changes":[8.223319E0,7.004114E0,4.4394283E0,0E0,0E0,0E0,0E0],"parents":[2147483647,0,0,1,1,2,2],"right_children":[2,4,6,-1,-1,-1,-1],"split_conditions":[2.0775385E0,3.6828223E-1,-2.2264336E-1,1.9317359E-2,-1.2332032E-1,-5.493376E-3,4.579478E-1],"split_indices":[16,8,12,0,0,0,0],"sum_hessian":[1.6383014E2,1.5678394E2,7.0461965E0,1.1554996E2,4.1233982E1,2.8661184E0,4.180078E0],"tree_param":{"num_deleted":"0","num_feature":"20","num_nodes":"7","size_leaf_vector":"0"}},{"base_weights":[-6.629088E-2,-9.143793E-2,1.0069938E0,-1.3193688E-1,4.827659E-1,1.2231125E0,1.9776641E-1],"default_left":[true,true,true,false,false,true,true],"id":34,"leaf_child_counts":[0,0,0,0,0,0,0],"left_children":[1,3,-1,-1,-1,-1,-1],"loss_changes":[4.7385473E0,3.9967794E0,4.6195173E-1,0E0,0E0,0E0,0E0],"parents":[2147483647,0,0,1,1,2,2],"right_children":[2,4,-1,-1,-1,-1,-1],"split_conditions":[3.3387952E0,1.7996418E0,3.0209816E-1,-3.9581064E-2,1.4482978E-1,3.6693376E-1,5.9329923E-2],"split_indices":[19,4,9,0,0,2147483647,2147483647],"sum_hessian":[1.711556E2,1.6813109E2,3.0245042E0,1.5777345E2,1.0357634E1,1.9833564E0,1.0411478E0],"tree_param":{"num_deleted":"2","num_feature":"20","num_nodes":"7","size_leaf_vector":"0"}},{"base_weights":[-1.733436E-2,-1.6968973E-1,2.917101E-1,-2.3746951E-1,1.0418252E0,1.773551E0,1.7094882E-1],"default_left":[true,true,false,false,false,false,false],"id":35,"leaf_child_counts":[0,0,0,0,0,0,0],"left_children":[1,3,5,-1,-1,-1,-1],"loss_changes":[8.015657E0,9.60488E0,9.759859E0,0E0,0E0,0E0,0E0],"parents":[2147483647,0,0,1,1,2,2],"right_children":[2,4,6,-1,-1,-1,-1],"split_conditions":[2.3006678E-1,1.5568812E0,3.3409816E-1,-7.124086E-2,3.1254756E-1,5.3206533E-1,5.128465E-2],"split_indices":[13,15,13,0,0,0,0],"sum_hessian":[1.6818823E2,1.1295409E2,5.5234142E1,1.0773093E2,5.223158E0,3.1307561E0,5.2103386E1],"tree_param":{"num_deleted":"0","num_feature":"20","num_nodes":"7","size_leaf_vector":"0"}},{"base_weights":[2.3034967E-3,-2.3432855E-2,1.080079E0,1.9827755E-1,-1.722907E-1,1.403103E0,1.4458038E-1],"default_left":[true,true,false,false,false,false,false],"id":36,"leaf_child_counts":[0,0,0,0,0,0,0],"left_children":[1,3,5,-1,-1,-1,-1],"loss_changes":[4.549466E0,5.323869E0,9.530592E-1,0E0,0E0,0E0,0E0],"parents":[2147483647,0,0,1,1,2,2],"right_children":[2,4,6,-1,-1,-1,-1],"split_conditions":[2.6767187E0,-7.1772146E-1,1.2073357E0,5.9483267E-2,-5.168721E-2,4.2093092E-1,4.3374114E-2],"split_indices":[18,19,14,0,0,0,0],"sum_hessian":[1.6210316E2,1.59278E2,2.8251631E0,6.3848858E1,9.542914E1,1.7284806E0,1.0966827E0],"tree_param":{"num_deleted":"0","num_feature":"20","num_nodes":"7","size_leaf_vector":"0"}},{"base_weights":[5.9804272E-2,-1.4536613E-1,2.2655573E-1,-3.0560485E-1,5.839377E-1,8.3987975E-1,1.2585965E-1],"default_left":[false,true,false,false,false,false,false],"id":37,"leaf_child_counts":[0,0,0,0,0,0,0],"left_children":[1,3,5,-1,-1,-1,-1],"loss_changes":[5.653418E0,8.857265E0,5.515427E0,0E0,0E0,0E0,0E0],"parents":[2147483647,0,0,1,1,2,2],"right_children":[2,4,6,-1,-1,-1,-1],"split_conditions":[-1.6145588E-1,1.211739E0,-1.0112152E0,-9.168146E-2,1.7518131E-1,2.5196394E-1,3.7757896E-2],"split_indices":[8,17,11,0,0,0,0],"sum_hessian":[1.6328177E2,7.326501E1,9.001676E1,6.0543644E1,1.272136E1,1.1659547E1,7.8357216E1],"tree_param":{"num_deleted":"0","num_feature":"20","num_nodes":"7","size_leaf_vector":"0"}},{"base_weights":[6.287289E-2,7.496836E-1,4.370146E-3,-4.02072E-1,1.1129605E0,-1.01190545E-1,2.8147972E-1],"default_left":[false,false,false,false,false,false,false],"id":38,"leaf_child_counts":[0,0,0,0,0,0,0],"left_children":[1,3,5,-1,-1,-1,-1],"loss_changes":[6.5536547E0,5.804517E0,4.456756E0,0E0,0E0,0E0,0E0],"parents":[2147483647,0,0,1,1,2,2],"right_children":[2,4,6,-1,-1,-1,-1],"split_conditions":[-2.4546795E0,-9.468585E-1,8.2256097E-1,-1.2062161E-1,3.3388814E-1,-3.0357165E-2,8.444392E-2],"split_indices":[17,10,19,0,0,0,0],"sum_hessian":[1.6218765E2,1.18034115E1,1.5038425E2,2.8046336E0,8.998778E0,1.0936003E2,4.1024208E1],"tree_param":{"num_deleted":"0","num_feature":"20","num_nodes":"7","size_leaf_vector":"0"}},{"base_weights":[1.7215224E-2,-6.689621E-2,4.8380125E-1,-1.23512216E-1,7.590548E-1,-5.5527264E-1,7.318855E-1],"default_left":[false,true,true,false,false,false,false],"id":39,"leaf_child_counts":[0,0,0,0,0,0,0],"left_children":[1,3,5,-1,-1,-1,-1],"loss_changes":[6.3971553E0,6.560374E0,6.823064E0,0E0,0E0,0E0,0E0],"parents":[2147483647,0,0,1,1,2,2],"right_children":[2,4,6,-1,-1,-1,-1],"split_conditions":[1.7996418E0,1.7947518E0,-1.6293099E0,-3.7053667E-2,2.2771645E-1,-1.665818E-1,2.1956566E-1],"split_indices":[0,8,18,0,0,0,0],"sum_hessian":[1.6118004E2,1.372878E2,2.3892237E1,1.292768E2,8.011005E0,4.366285E0,1.9525951E1],"tree_param":{"num_deleted":"0","num_feature":"20","num_nodes":"7","size_leaf_vector":"0"}},{"base_weights":[-1.3210081E-2,2.5374087E-2,-8.94976E-1,-3.246044E-2,6.690713E-1,-1.2606353E0,5.282053E-1],"default_left":[true,true,false,false,false,false,false],"id":40,"leaf_child_counts":[0,0,0,0,0,0,0],"left_children":[1,3,5,-1,-1,-1,-1],"loss_changes":[5.7561927E0,6.068622E0,4.356844E0,0E0,0E0,0E0,0E0],"parents":[2147483647,0,0,1,1,2,2],"right_children":[2,4,6,-1,-1,-1,-1],"split_conditions":[2.9764607E0,1.715909E0,2.9945111E0,-9.738132E-3,2.007214E-1,-3.781906E-1,1.5846159E-1],"split_indices":[9,15,3,0,0,0,0],"sum_hessian":[1.675218E2,1.6142924E2,6.0925703E0,1.4899225E2,1.24369955E1,4.9380465E0,1.1545236E0],"tree_param":{"num_deleted":"0","num_feature":"20","num_nodes":"7","size_leaf_vector":"0"}},{"base_weights":[-2.3439309E-2,7.554071E-2,-4.1118535E-1,-5.869396E-1,1.4301343E-1,-4.937107E-1,8.6018705E-1],"default_left":[true,false,true,false,false,false,false],"id":41,"leaf_child_counts":[0,0,0,0,0,0,0],"left_children":[1,3,5,-1,-1,-1,-1],"loss_changes":[6.182505E0,5.8292046E0,3.8608031E0,0E0,0E0,0E0,0E0],"parents":[2147483647,0,0,1,1,2,2],"right_children":[2,4,6,-1,-1,-1,-1],"split_conditions":[6.297172E-1,-1.9665835E0,3.1858044E0,-1.7608188E-1,4.290403E-2,-1.4811322E-1,2.5805613E-1],"split_indices":[0,3,13,0,0,0,0],"sum_hessian":[1.5928105E2,1.2753129E2,3.174976E1,1.1076626E1,1.1645466E2,3.0388874E1,1.3608844E0],"tree_param":{"num_deleted":"0","num_feature":"20","num_nodes":"7","size_leaf_vector":"0"}},{"base_weights":[-4.1280724E-3,1.2414169E-1,-2.8371075E-1,-8.45027E-1,1.7271861E-1,8.213642E-1,-4.8574388E-1],"default_left":[true,false,false,false,false,false,false],"id":42,"leaf_child_counts":[0,0,0,0,0,0,0],"left_children":[1,3,5,-1,-1,-1,-1],"loss_changes":[5.981135E0,5.5295258E0,1.2108717E1,0E0,0E0,0E0,0E0],"parents":[2147483647,0,0,1,1,2,2],"right_children":[2,4,6,-1,-1,-1,-1],"split_conditions":[2.0335642E-1,-2.9378605E0,-1.2214278E0,-2.5350812E-1,5.1815588E-2,2.4640928E-1,-1.4572316E-1],"split_indices":[16,9,19,0,0,0,0],"sum_hessian":[1.6479985E2,1.1335134E2,5.1448498E1,4.6276884E0,1.08723656E2,7.478318E0,4.397018E1],"tree_param":{"num_deleted":"0","num_feature":"20","num_nodes":"7","size_leaf_vector":"0"}},{"base_weights":[1.9234575E-2,-5.8862466E-1,7.181352E-2,3.2034546E-1,-9.0847445E-1,2.4938008E-1,-1.2813434E-1],"default_left":[false,false,true,false,false,false,false],"id":43,"leaf_child_counts":[0,0,0,0,0,0,0],"left_children":[1,3,5,-1,-1,-1,-1],"loss_changes":[5.1674156E0,4.034285E0,5.3037043E0,0E0,0E0,0E0,0E0],"parents":[2147483647,0,0,1,1,2,2],"right_children":[2,4,6,-1,-1,-1,-1],"split_conditions":[-1.5965605E0,-1.0996811E0,-4.3405086E-1,9.6103646E-2,-2.7254236E-1,7.481403E-2,-3.8440302E-2],"split_indices":[18,4,1,0,0,0,0],"sum_hessian":[1.5935823E2,1.187521E1,1.4748302E2,3.0905974E0,8.784613E0,7.798241E1,6.950062E1],"tree_param":{"num_deleted":"0","num_feature":"20","num_nodes":"7","size_leaf_vector":"0"}},{"base_weights":[-7.563941E-2,4.8534352E-2,-4.116512E-1,1.4702684E-1,-7.38695E-1,1.4169824E0,-5.1612395E-1],"default_left":[true,true,false,false,false,false,false],"id":44,"leaf_child_counts":[0,0,0,0,0,0,0],"left_children":[1,3,5,-1,-1,-1,-1],"loss_changes":[6.887439E0,9.496286E0,9.236221E0,0E0,0E0,0E0,0E0],"parents":[2147483647,0,0,1,1,2,2],"right_children":[2,4,6,-1,-1,-1,-1],"split_conditions":[3.2288766E-1,1.2128264E0,-1.954701E0,4.410805E-2,-2.2160852E-1,4.2509475E-1,-1.5483719E-1],"split_indices":[4,10,11,0,0,0,0],"sum_hessian":[1.6359314E2,1.2007483E2,4.3518314E1,1.0744528E2,1.2629547E1,1.6729385E0,4.1845375E1],"tree_param":{"num_deleted":"0","num_feature":"20","num_nodes":"7","size_leaf_vector":"0"}},{"base_weights":[5.5849828E-2,-8.1783116E-1,8.982584E-2,1.4113788E-1,-1.0675101E0,3.5101885E-1,-1.7129892E-2],"default_left":[false,true,true,false,false,false,false],"id":45,"leaf_child_counts":[0,0,0,0,0,0,0],"left_children":[1,3,5,-1,-1,-1,-1],"loss_changes":[4.9873195E0,1.6580215E0,4.4825573E0,0E0,0E0,0E0,0E0],"parents":[2147483647,0,0,1,1,2,2],"right_children":[2,4,6,-1,-1,-1,-1],"split_conditions":[-1.9281228E0,-2.6814842E0,-9.363911E-1,4.2341366E-2,-3.2025304E-1,1.0530566E-1,-5.138968E-3],"split_indices":[8,7,18,0,0,0,0],"sum_hessian":[1.6453783E2,5.2954845E0,1.5924234E2,1.1837293E0,4.1117554E0,4.560064E1,1.136417E2],"tree_param":{"num_deleted":"0","num_feature":"20","num_nodes":"7","size_leaf_vector":"0"}},{"base_weights":[3.6966607E-2,-4.908281E-1,1.1550392E-1,-8.1264025E-1,2.1928775E-1,1.8757091E-1,-3.5758087E-1],"default_left":[true,true,true,false,false,false,false],"id":46,"leaf_child_counts":[0,0,0,0,0,0,0],"left_children":[1,3,5,-1,-1,-1,-1],"loss_changes":[6.7559214E0,5.005623E0,4.8910513E0,0E0,0E0,0E0,0E0],"parents":[2147483647,0,0,1,1,2,2],"right_children":[2,4,6,-1,-1,-1,-1],"split_conditions":[-1.908007E0,-4.2386866E-1,1.0344882E0,-2.4379209E-1,6.578633E-2,5.6271277E-2,-1.07274264E-1],"split_indices":[4,17,2,0,0,0,0],"sum_hessian":[1.6061577E2,2.0124355E1,1.4049141E2,1.3749118E1,6.375238E0,1.2244272E2,1.8048697E1],"tree_param":{"num_deleted":"0","num_feature":"20","num_nodes":"7","size_leaf_vector":"0"}},{"base_weights":[-4.084003E-2,-3.7656006E-1,5.8014352E-2,-7.800242E-2,-9.541745E-1,8.2899606E-1,-8.131398E-3],"default_left":[true,true,false,false,false,false,false],"id":47,"leaf_child_counts":[0,0,0,0,0,0,0],"left_children":[1,3,5,-1,-1,-1,-1],"loss_changes":[5.4287558E0,6.3396697E0,6.469453E0,0E0,0E0,0E0,0E0],"parents":[2147483647,0,0,1,1,2,2],"right_children":[2,4,6,-1,-1,-1,-1],"split_conditions":[-1.3253915E0,1.8759902E-1,-1.514041E0,-2.3400728E-2,-2.8625238E-1,2.4869883E-1,-2.4394195E-3],"split_indices":[0,18,2,0,0,0,0],"sum_hessian":[1.6192058E2,3.6193695E1,1.2572689E2,2.4608885E1,1.158481E1,9.023057E0,1.16703835E2],"tree_param":{"num_deleted":"0","num_feature":"20","num_nodes":"7","size_leaf_vector":"0"}},{"base_weights":[-5.0110854E-2,-1.020561E-1,5.205673E-1,-1.5499432E-1,7.018332E-1,1.6738367E0,2.562099E-1],"default_left":[true,true,false,false,false,false,false],"id":48,"leaf_child_counts":[0,0,0,0,0,0,0],"left_children":[1,3,5,-1,-1,-1,-1],"loss_changes":[4.708978E0,6.270593E0,3.6160083E0,0E0,0E0,0E0,0E0],"parents":[2147483647,0,0,1,1,2,2],"right_children":[2,4,6,-1,-1,-1,-1],"split_conditions":[1.470085E0,1.9671154E0,1.5788357E0,-4.64983E-2,2.1054997E-1,5.02151E-1,7.6862976E-2],"split_indices":[18,8,18,0,0,0,0],"sum_hessian":[1.5605872E2,1.4379144E2,1.2267265E1,1.3566476E2,8.126687E0,1.2933326E0,1.0973933E1],"tree_param":{"num_deleted":"0","num_feature":"20","num_nodes":"7","size_leaf_vector":"0"}},{"base_weights":[4.9240723E-2,-7.7533E-2,2.320427E-1,3.472138E-1,-2.6276714E-1,5.5745065E-1,-2.2787169E-1],"default_left":[true,false,true,false,false,false,false],"id":49,"leaf_child_counts":[0,0,0,0,0,0,0],"left_children":[1,3,5,-1,-1,-1,-1],"loss_changes":[3.8107686E0,7.75369E0,1.0194828E1,0E0,0E0,0E0,0E0],"parents":[2147483647,0,0,1,1,2,2],"right_children":[2,4,6,-1,-1,-1,-1],"split_conditions":[-1.5692869E-1,-9.0316385E-1,6.773631E-2,1.04164146E-1,-7.8830145E-2,1.672352E-1,-6.8361506E-2],"split_indices":[4,10,12,0,0,0,0],"sum_hessian":[1.6266177E2,9.6390526E1,6.6271255E1,2.9005556E1,6.738497E1,3.868675E1,2.7584505E1],"tree_param":{"num_deleted":"0","num_feature":"20","num_nodes":"7","size_leaf_vector":"0"}},{"base_weights":[7.429384E-2,8.426841E-3,5.133705E-1,2.0457931E-1,-2.1693511E-1,-7.972214E-1,8.208431E-1],"default_left":[true,true,false,false,false,false,false],"id":50,"leaf_child_counts":[0,0,0,0,0,0,0],"left_children":[1,3,5,-1,-1,-1,-1],"loss_changes":[4.609405E0,6.2215157E0,9.033436E0,0E0,0E0,0E0,0E0],"parents":[2147483647,0,0,1,1,2,2],"right_children":[2,4,6,-1,-1,-1,-1],"split_conditions":[1.0708983E0,-4.4371635E-1,-9.9615836E-1,6.1373796E-2,-6.508054E-2,-2.3916644E-1,2.4625294E-1],"split_indices":[16,3,0,0,0,0,0],"sum_hessian":[1.585306E2,1.3873744E2,1.979316E1,7.422504E1,6.45124E1,3.4585178E0,1.633464E1],"tree_param":{"num_deleted":"0","num_feature":"20","num_nodes":"7","size_leaf_vector":"0"}},{"base_weights":[4.735178E-3,-9.362532E-2,3.1208172E-1,3.1718686E-1,-1.9824892E-1,-4.5603853E-1,6.047884E-1],"default_left":[true,false,true,false,false,false,false],"id":51,"leaf_child_counts":[0,0,0,0,0,0,0],"left_children":[1,3,5,-1,-1,-1,-1],"loss_changes":[4.672684E0,5.0972333E0,8.700348E0,0E0,0E0,0E0,0E0],"parents":[2147483647,0,0,1,1,2,2],"right_children":[2,4,6,-1,-1,-1,-1],"split_conditions":[3.7631512E-1,-9.902289E-1,-8.16872E-1,9.5156066E-2,-5.947468E-2,-1.3681157E-1,1.8143654E-1],"split_indices":[2,16,6,0,0,0,0],"sum_hessian":[1.526007E2,1.1613064E2,3.647006E1,2.3159903E1,9.297074E1,9.908966E0,2.656109E1],"tree_param":{"num_deleted":"0","num_feature":"20","num_nodes":"7","size_leaf_vector":"0"}},{"base_weights":[-6.2743865E-2,-9.050153E-2,1.1070087E0,-1.252627E-1,5.5330807E-1,1.4446518E0,2.0632811E-1],"default_left":[true,true,false,false,false,false,false],"id":52,"leaf_child_counts":[0,0,0,0,0,0,0],"left_children":[1,3,5,-1,-1,-1,-1],"loss_changes":[5.459753E0,3.6984344E0,8.884611E-1,0E0,0E0,0E0,0E0],"parents":[2147483647,0,0,1,1,2,2],"right_children":[2,4,6,-1,-1,-1,-1],"split_conditions":[2.6767187E0,2.0701804E0,6.804873E-1,-3.757881E-2,1.6599242E-1,4.3339556E-1,6.1898436E-2],"split_indices":[14,4,19,0,0,0,0],"sum_hessian":[1.6406413E2,1.6116245E2,2.901676E0,1.5367076E2,7.491698E0,1.6712204E0,1.2304555E0],"tree_param":{"num_deleted":"0","num_feature":"20","num_nodes":"7","size_leaf_vector":"0"}},{"base_weights":[1.2137035E-2,-4.472207E-1,7.9338364E-2,1.628662E-1,-8.3917046E-1,9.1497344E-1,3.1983543E-2],"default_left":[false,true,false,false,false,false,false],"id":53,"leaf_child_counts":[0,0,0,0,0,0,0],"left_children":[1,3,5,-1,-1,-1,-1],"loss_changes":[4.908826E0,4.9905276E0,5.454175E0,0E0,0E0,0E0,0E0],"parents":[2147483647,0,0,1,1,2,2],"right_children":[2,4,6,-1,-1,-1,-1],"split_conditions":[-1.384449E0,-9.6841544E-1,-1.4448512E0,4.8859864E-2,-2.5175115E-1,2.7449206E-1,9.5950635E-3],"split_indices":[14,18,12,0,0,0,0],"sum_hessian":[1.5686948E2,1.9298534E1,1.3757094E2,7.7772994E0,1.1521234E1,6.395349E0,1.311756E2],"tree_param":{"num_deleted":"0","num_feature":"20","num_nodes":"7","size_leaf_vector":"0"}},{"base_weights":[-3.0423425E-2,-1.8071127E-1,1.4310011E-1,-1.03215E-1,-9.912381E-1,-2.6713085E-1,2.857269E-1],"default_left":[true,true,false,false,false,false,false],"id":54,"leaf_child_counts":[0,0,0,0,0,0,0],"left_children":[1,3,5,-1,-1,-1,-1],"loss_changes":[4.3822293E0,5.5483036E0,4.6453E0,0E0,0E0,0E0,0E0],"parents":[2147483647,0,0,1,1,2,2],"right_children":[2,4,6,-1,-1,-1,-1],"split_conditions":[-1.6828641E-1,-3.1368548E-1,-6.118665E-1,-3.0964501E-2,-2.9737145E-1,-8.013926E-2,8.571807E-2],"split_indices":[14,14,8,0,0,0,0],"sum_hessian":[1.6604845E2,8.895959E1,7.708886E1,8.22252E1,6.73439E0,1.966226E1,5.7426598E1],"tree_param":{"num_deleted":"0","num_feature":"20","num_nodes":"7","size_leaf_vector":"0"}},{"base_weights":[-2.0620308E-3,-5.0571192E-2,9.307977E-1,-7.714937E-2,1.1271901E0,1.5073677E0,-3.6051318E-1],"default_left":[true,true,true,false,false,false,false],"id":55,"leaf_child_counts":[0,0,0,0,0,0,0],"left_children":[1,3,5,-1,-1,-1,-1],"loss_changes":[7.0371313E0,4.712941E0,6.2665935E0,0E0,0E0,0E0,0E0],"parents":[2147483647,0,0,1,1,2,2],"right_children":[2,4,6,-1,-1,-1,-1],"split_conditions":[2.0701804E0,3.1919186E0,3.3232915E-1,-2.3144811E-2,3.3815706E-1,4.5221034E-1,-1.0815396E-1],"split_indices":[0,15,14,0,0,0,0],"sum_hessian":[1.5346881E2,1.4678186E2,6.68694E0,1.4445645E2,2.3254097E0,4.507172E0,2.1797678E0],"tree_param":{"num_deleted":"0","num_feature":"20","num_nodes":"7","size_leaf_vector":"0"}},{"base_weights":[5.522887E-2,-8.7452805E-1,8.0110796E-2,3.8213208E-1,-1.4623275E-2],"default_left":[false,false,true,false,false],"id":56,"leaf_child_counts":[0,0,0,0,0],"left_children":[1,-1,3,-1,-1],"loss_changes":[3.7248492E0,0E0,4.4341335E0,0E0,0E0],"parents":[2147483647,0,0,2,2],"right_children":[2,-1,4,-1,-1],"split_conditions":[-2.1403189E0,-2.6235843E-1,-1.1136644E0,1.1463963E-1,-4.386983E-3],"split_indices":[16,0,8,0,0],"sum_hessian":[1.5698248E2,3.2016094E0,1.5378088E2,3.5994198E1,1.1778668E2],"tree_param":{"num_deleted":"0","num_feature":"20","num_nodes":"5","size_leaf_vector":"0"}},{"base_weights":[5.090551E-3,1.1294278E-1,-3.016319E-1,3.3296618E-1,-1.8250938E-1,-4.2008358E-1,6.4968777E-1],"default_left":[true,false,false,false,false,false,false],"id":57,"leaf_child_counts":[0,0,0,0,0,0,0],"left_children":[1,3,5,-1,-1,-1,-1],"loss_changes":[5.194615E0,7.6108074E0,4.876768E0,0E0,0E0,0E0,0E0],"parents":[2147483647,0,0,1,1,2,2],"right_children":[2,4,6,-1,-1,-1,-1],"split_conditions":[3.6828223E-1,1.9946194E-1,2.2177453E0,9.988986E-2,-5.4752816E-2,-1.2602508E-1,1.9490634E-1],"split_indices":[4,14,7,0,0,0,0],"sum_hessian":[1.5499875E2,1.15143005E2,3.985574E1,6.592308E1,4.921993E1,3.5939255E1,3.916484E0],"tree_param":{"num_deleted":"0","num_feature":"20","num_nodes":"7","size_leaf_vector":"0"}},{"base_weights":[2.0754742E-2,-9.69143E-2,2.520284E-1,-1.433529E-1,6.9164646E-1,4.80459E-1,-4.6678883E-1],"default_left":[true,true,true,false,false,false,false],"id":58,"leaf_child_counts":[0,0,0,0,0,0,0],"left_children":[1,3,5,-1,-1,-1,-1],"loss_changes":[4.403155E0,4.0308228E0,9.179115E0,0E0,0E0,0E0,0E0],"parents":[2147483647,0,0,1,1,2,2],"right_children":[2,4,6,-1,-1,-1,-1],"split_conditions":[1.2497743E-1,1.5622133E0,7.35219E-1,-4.300587E-2,2.0749395E-1,1.4413771E-1,-1.4003666E-1],"split_indices":[5,19,0,0,0,0,0],"sum_hessian":[1.5990135E2,1.0636512E2,5.3536236E1,1.0122231E2,5.142805E0,4.0877506E1,1.2658731E1],"tree_param":{"num_deleted":"0","num_feature":"20","num_nodes":"7","size_leaf_vector":"0"}},{"base_weights":[1.796171E-2,-1.4944744E-1,2.0725442E-1,-5.2057702E-2,-6.0902923E-1,-6.7651707E-1,2.8911927E-1],"default_left":[true,true,false,false,false,false,false],"id":59,"leaf_child_counts":[0,0,0,0,0,0,0],"left_children":[1,3,5,-1,-1,-1,-1],"loss_changes":[4.987381E0,3.7092981E0,5.5367703E0,0E0,0E0,0E0,0E0],"parents":[2147483647,0,0,1,1,2,2],"right_children":[2,4,6,-1,-1,-1,-1],"split_conditions":[-1.7005032E-1,1.4863485E-1,-1.6140704E0,-1.5617311E-2,-1.8270877E-1,-2.0295513E-1,8.6735785E-2],"split_indices":[14,12,2,0,0,0,0],"sum_hessian":[1.5540619E2,8.258186E1,7.2824326E1,6.9060555E1,1.3521313E1,5.558097E0,6.726623E1],"tree_param":{"num_deleted":"0","num_feature":"20","num_nodes":"7","size_leaf_vector":"0"}},{"base_weights":[-4.1901346E-2,9.188495E-3,-5.9392136E-1,-6.0538795E-2,4.2154095E-1,6.5009046E-1,-1.0181901E0],"default_left":[true,true,true,false,false,false,false],"id":60,"leaf_child_counts":[0,0,0,0,0,0,0],"left_children":[1,3,5,-1,-1,-1,-1],"loss_changes":[4.410594E0,4.1643815E0,7.6534643E0,0E0,0E0,0E0,0E0],"parents":[2147483647,0,0,1,1,2,2],"right_children":[2,4,6,-1,-1,-1,-1],"split_conditions":[2.2177894E0,1.050343E0,2.6169032E-1,-1.816164E-2,1.264623E-1,1.9502714E-1,-3.0545706E-1],"split_indices":[5,12,15,0,0,0,0],"sum_hessian":[1.5519603E2,1.4294933E2,1.2246704E1,1.2300313E2,1.9946192E1,2.9791582E0,9.267547E0],"tree_param":{"num_deleted":"0","num_feature":"20","num_nodes":"7","size_leaf_vector":"0"}},{"base_weights":[8.217639E-3,1.2778199E-1,-3.0764157E-1,7.2599878E-3,5.709002E-1,-1.2537764E-1,-1.0177251E0],"default_left":[true,true,false,false,false,false,false],"id":61,"leaf_child_counts":[0,0,0,0,0,0,0],"left_children":[1,3,5,-1,-1,-1,-1],"loss_changes":[5.959663E0,6.10682E0,5.4816256E0,0E0,0E0,0E0,0E0],"parents":[2147483647,0,0,1,1,2,2],"right_children":[2,4,6,-1,-1,-1,-1],"split_conditions":[3.8458884E-1,-7.422763E-2,2.093379E0,2.1779963E-3,1.7127007E-1,-3.7613295E-2,-3.0531755E-1],"split_indices":[16,16,9,0,0,0,0],"sum_hessian":[1.5576616E2,1.13425766E2,4.2340385E1,8.997123E1,2.3454538E1,3.462852E1,7.7118645E0],"tree_param":{"num_deleted":"0","num_feature":"20","num_nodes":"7","size_leaf_vector":"0"}},{"base_weights":[-4.555542E-2,-7.984752E-2,8.613683E-1,5.415233E-3,-5.14161E-1,-8.728356E-2,1.1417401E0],"default_left":[true,true,false,false,false,false,false],"id":62,"leaf_child_counts":[0,0,0,0,0,0,0],"left_children":[1,3,5,-1,-1,-1,-1],"loss_changes":[5.0058E0,5.700949E0,1.6605372E0,0E0,0E0,0E0,0E0],"parents":[2147483647,0,0,1,1,2,2],"right_children":[2,4,6,-1,-1,-1,-1],"split_conditions":[2.630691E0,8.84796E-1,-4.3194413E-1,1.6245699E-3,-1.542483E-1,-2.618507E-2,3.4252203E-1],"split_indices":[11,18,12,0,0,0,0],"sum_hessian":[1.5774503E2,1.5287651E2,4.868525E0,1.2861487E2,2.4261646E1,1.2677422E0,3.6007829E0],"tree_param":{"num_deleted":"0","num_feature":"20","num_nodes":"7","size_leaf_vector":"0"}},{"base_weights":[-3.8068E-2,-1.0432705E0,2.9208339E-3,-1.3396921E0,-6.415428E-2,2.6012537E-1,-1.3443546E-1],"default_left":[false,false,false,false,false,false,false],"id":63,"leaf_child_counts":[0,0,0,0,0,0,0],"left_children":[1,3,5,-1,-1,-1,-1],"loss_changes":[6.4879766E0,1.7045822E0,5.412839E0,0E0,0E0,0E0,0E0],"parents":[2147483647,0,0,1,1,2,2],"right_children":[2,4,6,-1,-1,-1,-1],"split_conditions":[-2.9335203E0,3.0979043E-1,-4.418653E-1,-4.0190765E-1,-1.9246286E-2,7.803761E-2,-4.033064E-2],"split_indices":[17,18,1,0,0,0,0],"sum_hessian":[1.5639328E2,5.1693196E0,1.5122395E2,3.6853383E0,1.4839813E0,5.233361E1,9.889035E1],"tree_param":{"num_deleted":"0","num_feature":"20","num_nodes":"7","size_leaf_vector":"0"}},{"base_weights":[-5.2005112E-2,-7.6775745E-2,1.098777E0,3.7387115E-1,-1.327896E-1,1.5502008E0,1.4017083E-1],"default_left":[true,false,false,false,false,false,false],"id":64,"leaf_child_counts":[0,0,0,0,0,0,0],"left_children":[1,3,5,-1,-1,-1,-1],"loss_changes":[4.4058595E0,3.8194075E0,1.1933379E0,0E0,0E0,0E0,0E0],"parents":[2147483647,0,0,1,1,2,2],"right_children":[2,4,6,-1,-1,-1,-1],"split_conditions":[2.5288014E0,-2.0194743E0,2.9914246E0,1.12161346E-1,-3.983688E-2,4.6506026E-1,4.205125E-2],"split_indices":[2,13,2,0,0,0,0],"sum_hessian":[1.5060179E2,1.4834201E2,2.2597835E0,1.5772586E1,1.3256941E2,1.1167479E0,1.1430358E0],"tree_param":{"num_deleted":"0","num_feature":"20","num_nodes":"7","size_leaf_vector":"0"}},{"base_weights":[-1.7931415E-2,-6.2917545E-2,6.3518983E-1,4.7921813E-1,-1.3106167E-1,1.1060673E0,5.4845978E-2],"default_left":[true,false,true,false,false,false,false],"id":65,"leaf_child_counts":[0,0,0,0,0,0,0],"left_children":[1,3,5,-1,-1,-1,-1],"loss_changes":[4.6362343E0,5.5032296E0,2.718719E0,0E0,0E0,0E0,0E0],"parents":[2147483647,0,0,1,1,2,2],"right_children":[2,4,6,-1,-1,-1,-1],"split_conditions":[2.2941587E0,-1.523983E0,3.0402726E-1,1.4376545E-1,-3.9318502E-2,3.318202E-1,1.6453793E-2],"split_indices":[17,2,11,0,0,0,0],"sum_hessian":[1.5543466E2,1.4626387E2,9.170797E0,1.5658308E1,1.3060556E2,4.5627804E0,4.608017E0],"tree_param":{"num_deleted":"0","num_feature":"20","num_nodes":"7","size_leaf_vector":"0"}},{"base_weights":[3.9734814E-2,-8.3307815E-1,7.3465995E-2,-1.9746281E-1,-1.1393877E0,3.4386626E-1,-4.9084153E-2],"default_left":[false,false,false,false,false,false,false],"id":66,"leaf_child_counts":[0,0,0,0,0,0,0],"left_children":[1,3,5,-1,-1,-1,-1],"loss_changes":[4.7282305E0,9.391699E-1,5.104888E0,0E0,0E0,0E0,0E0],"parents":[2147483647,0,0,1,1,2,2],"right_children":[2,4,6,-1,-1,-1,-1],"split_conditions":[-2.0968642E0,-6.349436E-1,-7.3069704E-1,-5.9238847E-2,-3.4181634E-1,1.0315988E-1,-1.47252465E-2],"split_indices":[18,12,15,0,0,0,0],"sum_hessian":[1.5752129E2,4.979386E0,1.525419E2,2.1541057E0,2.82528E0,4.70103E1,1.055316E2],"tree_param":{"num_deleted":"0","num_feature":"20","num_nodes":"7","size_leaf_vector":"0"}},{"base_weights":[1.800118E-2,1.23977855E-1,-1.4989446E-1,4.0856043E-1,-9.934522E-2,-4.9966577E-1,2.1168266E-1],"default_left":[false,true,true,false,false,false,false],"id":67,"leaf_child_counts":[0,0,0,0,0,0,0],"left_children":[1,3,5,-1,-1,-1,-1],"loss_changes":[2.8026972E0,6.1717296E0,7.8204775E0,0E0,0E0,0E0,0E0],"parents":[2147483647,0,0,1,1,2,2],"right_children":[2,4,6,-1,-1,-1,-1],"split_conditions":[2.2703154E-1,-6.2140167E-1,-1.8225983E-1,1.2256813E-1,-2.9803568E-2,-1.4989974E-1,6.35048E-2],"split_indices":[3,6,10,0,0,0,0],"sum_hessian":[1.5547221E2,9.547159E1,6.0000626E1,4.161358E1,5.385801E1,3.0304089E1,2.9696539E1],"tree_param":{"num_deleted":"0","num_feature":"20","num_nodes":"7","size_leaf_vector":"0"}},{"base_weights":[-1.8700473E-2,-1.3913916E-1,3.3005977E-1,-4.650694E-2,-8.003834E-1,-3.2690156E-1,5.8190805E-1],"default_left":[false,false,false,false,false,false,false],"id":68,"leaf_child_counts":[0,0,0,0,0,0,0],"left_children":[1,3,5,-1,-1,-1,-1],"loss_changes":[6.2877135E0,6.7715225E0,6.550374E0,0E0,0E0,0E0,0E0],"parents":[2147483647,0,0,1,1,2,2],"right_children":[2,4,6,-1,-1,-1,-1],"split_conditions":[9.399148E-1,1.5369507E0,-7.2508603E-1,-1.3952083E-2,-2.4011503E-1,-9.807047E-2,1.7457242E-1],"split_indices":[4,10,17,0,0,0,0],"sum_hessian":[1.4759908E2,1.1015863E2,3.744045E1,9.756175E1,1.2596875E1,1.0292869E1,2.714758E1],"tree_param":{"num_deleted":"0","num_feature":"20","num_nodes":"7","size_leaf_vector":"0"}},{"base_weights":[5.4683343E-2,-1.5253155E-1,2.1158864E-1,-7.8528935E-1,-3.48394E-2,9.433524E-1,9.81816E-2],"default_left":[false,true,false,false,false,false,false],"id":69,"leaf_child_counts":[0,0,0,0,0,0,0],"left_children":[1,3,5,-1,-1,-1,-1],"loss_changes":[5.186853E0,5.1035094E0,7.4293823E0,0E0,0E0,0E0,0E0],"parents":[2147483647,0,0,1,1,2,2],"right_children":[2,4,6,-1,-1,-1,-1],"split_conditions":[-1.6761562E-1,-1.8978295E0,-1.1314534E0,-2.355868E-1,-1.045182E-2,2.8300574E-1,2.945448E-2],"split_indices":[18,15,8,0,0,0,0],"sum_hessian":[1.5753845E2,6.789788E1,8.9640564E1,9.758747E0,5.8139137E1,1.10462E1,7.859437E1],"tree_param":{"num_deleted":"0","num_feature":"20","num_nodes":"7","size_leaf_vector":"0"}},{"base_weights":[-1.3882681E-2,-1.4892904E-1,2.9023924E-1,-2.276818E-1,2.7500352E-1,6.970538E-1,4.677421E-2],"default_left":[false,false,false,false,false,false,false],"id":70,"leaf_child_counts":[0,0,0,0,0,0,0],"left_children":[1,3,5,-1,-1,-1,-1],"loss_changes":[6.470755E0,3.7028785E0,4.7674704E0,0E0,0E0,0E0,0E0],"parents":[2147483647,0,0,1,1,2,2],"right_children":[2,4,6,-1,-1,-1,-1],"split_conditions":[1.211739E0,1.0714192E0,-4.2009568E-1,-6.8304546E-2,8.250106E-2,2.0911615E-1,1.4032263E-2],"split_indices":[13,12,2,0,0,0,0],"sum_hessian":[1.5549968E2,1.0803616E2,4.7463524E1,9.1501175E1,1.6534985E1,1.7072842E1,3.0390684E1],"tree_param":{"num_deleted":"0","num_feature":"20","num_nodes":"7","size_leaf_vector":"0"}},{"base_weights":[8.05602E-3,-7.117275E-2,3.564156E-1,7.819235E-3,-7.1193063E-1,5.541969E-1,-6.974577E-1],"default_left":[false,false,true,false,false,false,false],"id":71,"leaf_child_counts":[0,0,0,0,0,0,0],"left_children":[1,3,5,-1,-1,-1,-1],"loss_changes":[4.2402897E0,6.345106E0,6.3192883E0,0E0,0E0,0E0,0E0],"parents":[2147483647,0,0,1,1,2,2],"right_children":[2,4,6,-1,-1,-1,-1],"split_conditions":[1.5717108E0,1.665562E0,1.6146435E0,2.3457706E-3,-2.135792E-1,1.6625908E-1,-2.092373E-1],"split_indices":[11,6,13,0,0,0,0],"sum_hessian":[1.5171402E2,1.2425086E2,2.7463163E1,1.1149381E2,1.2757048E1,2.352276E1,3.940403E0],"tree_param":{"num_deleted":"0","num_feature":"20","num_nodes":"7","size_leaf_vector":"0"}},{"base_weights":[-5.324154E-2,-7.381663E-2,8.37496E-1,3.5889387E-2,-3.403816E-1,1.2762967E0,2.2992961E-2],"default_left":[true,true,false,false,false,false,false],"id":72,"leaf_child_counts":[0,0,0,0,0,0,0],"left_children":[1,3,5,-1,-1,-1,-1],"loss_changes":[2.7439346E0,4.2222233E0,1.1805232E0,0E0,0E0,0E0,0E0],"parents":[2147483647,0,0,1,1,2,2],"right_children":[2,4,6,-1,-1,-1,-1],"split_conditions":[2.6767187E0,2.6801583E-1,4.4887906E-1,1.0766816E-2,-1.0211448E-1,3.8288903E-1,6.8978886E-3],"split_indices":[18,18,1,0,0,0,0],"sum_hessian":[1.4534763E2,1.4296248E2,2.3851528E0,1.0189322E2,4.1069252E1,1.1816132E0,1.2035396E0],"tree_param":{"num_deleted":"0","num_feature":"20","num_nodes":"7","size_leaf_vector":"0"}},{"base_weights":[-2.2373758E-2,-3.1951025E-1,9.580435E-2,-1.0802075E0,-1.5376763E-1,-6.99726E-3,5.946172E-1],"default_left":[false,false,true,false,false,false,false],"id":73,"leaf_child_counts":[0,0,0,0,0,0,0],"left_children":[1,3,5,-1,-1,-1,-1],"loss_changes":[5.3582025E0,5.3060513E0,5.6097517E0,0E0,0E0,0E0,0E0],"parents":[2147483647,0,0,1,1,2,2],"right_children":[2,4,6,-1,-1,-1,-1],"split_conditions":[-6.5024865E-1,-1.357723E0,8.919476E-1,-3.2406226E-1,-4.6130292E-2,-2.099178E-3,1.7838517E-1],"split_indices":[16,2,10,0,0,0,0],"sum_hessian":[1.5071829E2,4.2402245E1,1.0831605E2,6.598802E0,3.580344E1,9.06249E1,1.7691145E1],"tree_param":{"num_deleted":"0","num_feature":"20","num_nodes":"7","size_leaf_vector":"0"}},{"base_weights":[-1.6842768E-2,-1.8943232E-1,1.0873527E-1,2.2591228E-2,-5.734095E-1,6.650249E-1,-4.369769E-2],"default_left":[true,false,false,false,false,false,false],"id":74,"leaf_child_counts":[0,0,0,0,0,0,0],"left_children":[1,3,5,-1,-1,-1,-1],"loss_changes":[3.3840232E0,5.363681E0,7.699995E0,0E0,0E0,0E0,0E0],"parents":[2147483647,0,0,1,1,2,2],"right_children":[2,4,6,-1,-1,-1,-1],"split_conditions":[-1.0205209E0,-1.02685794E-1,-4.3405086E-1,6.7773685E-3,-1.7202285E-1,1.9950747E-1,-1.3109307E-2],"split_indices":[9,19,5,0,0,0,0],"sum_hessian":[1.5418637E2,6.472389E1,8.946248E1,4.230512E1,2.2418772E1,1.8518442E1,7.094404E1],"tree_param":{"num_deleted":"0","num_feature":"20","num_nodes":"7","size_leaf_vector":"0"}},{"base_weights":[-1.1608079E-2,-1.3509786E-1,1.19140744E-1,1.1218888E-1,-4.1240245E-1,-1.3607442E-1,3.765604E-1],"default_left":[true,true,true,false,false,false,false],"id":75,"leaf_child_counts":[0,0,0,0,0,0,0],"left_children":[1,3,5,-1,-1,-1,-1],"loss_changes":[2.5220912E0,5.5519085E0,5.0389323E0,0E0,0E0,0E0,0E0],"parents":[2147483647,0,0,1,1,2,2],"right_children":[2,4,6,-1,-1,-1,-1],"split_conditions":[-1.6828641E-1,-4.5939073E-1,-5.105711E-1,3.3656668E-2,-1.2372074E-1,-4.0822327E-2,1.12968124E-1],"split_indices":[14,4,3,0,0,0,0],"sum_hessian":[1.5420705E2,7.928789E1,7.491917E1,4.2227177E1,3.706071E1,3.785738E1,3.7061787E1],"tree_param":{"num_deleted":"0","num_feature":"20","num_nodes":"7","size_leaf_vector":"0"}},{"base_weights":[4.2929005E-2,2.0035891E-1,-1.3050812E-1,4.8001252E-2,9.527095E-1,1.2102861E0,-1.7616972E-1],"default_left":[true,true,false,false,false,false,false],"id":76,"leaf_child_counts":[0,0,0,0,0,0,0],"left_children":[1,3,5,-1,-1,-1,-1],"loss_changes":[4.046539E0,8.846809E0,4.539585E0,0E0,0E0,0E0,0E0],"parents":[2147483647,0,0,1,1,2,2],"right_children":[2,4,6,-1,-1,-1,-1],"split_conditions":[-3.8725275E-1,2.8768387E-1,-1.3658135E0,1.4400376E-2,2.8581285E-1,3.6308587E-1,-5.285092E-2],"split_indices":[17,1,9,0,0,0,0],"sum_hessian":[1.4624445E2,7.6578476E1,6.966596E1,6.456691E1,1.2011569E1,1.4543809E0,6.8211586E1],"tree_param":{"num_deleted":"0","num_feature":"20","num_nodes":"7","size_leaf_vector":"0"}},{"base_weights":[-3.4995843E-2,1.10871695E-1,-4.1057727E-1,5.017188E-1,-8.6298486E-4,1.1627158E0,-5.4757804E-1],"default_left":[true,true,false,false,false,false,false],"id":77,"leaf_child_counts":[0,0,0,0,0,0,0],"left_children":[1,3,5,-1,-1,-1,-1],"loss_changes":[8.167458E0,4.6980186E0,9.621246E0,0E0,0E0,0E0,0E0],"parents":[2147483647,0,0,1,1,2,2],"right_children":[2,4,6,-1,-1,-1,-1],"split_conditions":[3.457042E-1,-3.3096702E0,-2.4450905E0,1.5051565E-1,-2.5889548E-4,3.4881476E-1,-1.6427341E-1],"split_indices":[12,1,13,0,0,0,0],"sum_hessian":[1.4725073E2,1.0656719E2,4.0683544E1,2.2916203E1,8.365099E1,2.6591697E0,3.8024372E1],"tree_param":{"num_deleted":"0","num_feature":"20","num_nodes":"7","size_leaf_vector":"0"}},{"base_weights":[1.17369015E-2,-4.319593E-1,1.1549952E-1,-5.915277E-1,1.3450676E0,8.884207E-1,5.4004867E-2],"default_left":[false,true,false,false,false,false,false],"id":78,"leaf_child_counts":[0,0,0,0,0,0,0],"left_children":[1,3,5,-1,-1,-1,-1],"loss_changes":[6.8884344E0,8.838492E0,5.711471E0,0E0,0E0,0E0,0E0],"parents":[2147483647,0,0,1,1,2,2],"right_children":[2,4,6,-1,-1,-1,-1],"split_conditions":[-1.4000254E0,-2.8928173E-1,-1.9760418E0,-1.7745832E-1,4.0352032E-1,2.6652622E-1,1.620146E-2],"split_indices":[1,9,9,0,0,0,0],"sum_hessian":[1.4753781E2,2.736409E1,1.2017371E2,2.5721546E1,1.6425455E0,7.8655205E0,1.123082E2],"tree_param":{"num_deleted":"0","num_feature":"20","num_nodes":"7","size_leaf_vector":"0"}},{"base_weights":[6.633558E-2,-1.0458784E0,8.810231E-2,1.11488715E-1,-8.457455E-1],"default_left":[false,false,true,false,false],"id":79,"leaf_child_counts":[0,0,0,0,0],"left_children":[1,-1,3,-1,-1],"loss_changes":[3.8559842E0,0E0,3.444645E0,0E0,0E0],"parents":[2147483647,0,0,2,2],"right_children":[2,-1,4,-1,-1],"split_conditions":[-2.7885818E0,-3.1376353E-1,2.9682531E0,3.3446617E-2,-2.5372365E-1],"split_indices":[15,0,4,0,0],"sum_hessian":[1.5447108E2,2.061956E0,1.5240912E2,1.4954468E2,2.8644419E0],"tree_param":{"num_deleted":"0","num_feature":"20","num_nodes":"5","size_leaf_vector":"0"}},{"base_weights":[7.9519935E-2,-3.1976065E-1,1.6888782E-1,5.1741585E-2,-8.0239874E-1,1.0972729E0,1.0890195E-1],"default_left":[false,false,false,false,false,false,false],"id":80,"leaf_child_counts":[0,0,0,0,0,0,0],"left_children":[1,3,5,-1,-1,-1,-1],"loss_changes":[5.4533668E0,5.06542E0,6.8025446E0,0E0,0E0,0E0,0E0],"parents":[2147483647,0,0,1,1,2,2],"right_children":[2,4,6,-1,-1,-1,-1],"split_conditions":[-1.4085636E0,-1.9602997E0,-1.9415562E0,1.5522476E-2,-2.4071963E-1,3.2918188E-1,3.2670587E-2],"split_indices":[9,13,17,0,0,0,0],"sum_hessian":[1.503153E2,2.7019358E1,1.23295944E2,1.577196E1,1.1247396E1,6.433544E0,1.16862404E2],"tree_param":{"num_deleted":"0","num_feature":"20","num_nodes":"7","size_leaf_vector":"0"}},{"base_weights":[-8.8227E-2,1.7105444E-1,-2.2291738E-1,-4.5362362E-1,4.306534E-1,5.248185E-1,-2.9729074E-1],"default_left":[false,false,false,false,false,false,false],"id":81,"leaf_child_counts":[0,0,0,0,0,0,0],"left_children":[1,3,5,-1,-1,-1,-1],"loss_changes":[5.4278917E0,8.843531E0,5.8286724E0,0E0,0E0,0E0,0E0],"parents":[2147483647,0,0,1,1,2,2],"right_children":[2,4,6,-1,-1,-1,-1],"split_conditions":[-7.3369527E-1,-1.0220915E0,-1.5738811E0,-1.3608709E-1,1.2919602E-1,1.5744555E-1,-8.918723E-2],"split_indices":[3,13,15,0,0,0,0],"sum_hessian":[1.5333395E2,5.2329235E1,1.01004715E2,1.5142981E1,3.7186256E1,8.589631E0,9.2415085E1],"tree_param":{"num_deleted":"0","num_feature":"20","num_nodes":"7","size_leaf_vector":"0"}},{"base_weights":[2.2637013E-2,9.446821E-2,-3.940183E-1,-8.699131E-2,2.6422054E-1,-5.7353073E-1,8.554701E-1],"default_left":[true,false,false,false,false,false,false],"id":82,"leaf_child_counts":[0,0,0,0,0,0,0],"left_children":[1,3,5,-1,-1,-1,-1],"loss_changes":[4.4903827E0,3.9571228E0,5.441576E0,0E0,0E0,0E0,0E0],"parents":[2147483647,0,0,1,1,2,2],"right_children":[2,4,6,-1,-1,-1,-1],"split_conditions":[1.0635271E0,-2.6933008E-1,2.084896E0,-2.6097395E-2,7.926616E-2,-1.7205922E-1,2.5664106E-1],"split_indices":[14,12,3,0,0,0,0],"sum_hessian":[1.4779156E2,1.267186E2,2.1072964E1,6.1482937E1,6.523566E1,1.8898785E1,2.1741776E0],"tree_param":{"num_deleted":"0","num_feature":"20","num_nodes":"7","size_leaf_vector":"0"}},{"base_weights":[-1.7373176E-2,-8.274447E-1,1.2592036E-2,2.3917377E-1,-1.1327045E0,1.9881809E-1,-1.1738364E-1],"default_left":[false,false,true,false,false,false,false],"id":83,"leaf_child_counts":[0,0,0,0,0,0,0],"left_children":[1,3,5,-1,-1,-1,-1],"loss_changes":[3.6948233E0,2.038681E0,3.5900412E0,0E0,0E0,0E0,0E0],"parents":[2147483647,0,0,1,1,2,2],"right_children":[2,4,6,-1,-1,-1,-1],"split_conditions":[-1.9089246E0,-9.351114E-1,-6.625438E-1,7.175213E-2,-3.3981135E-1,5.964543E-2,-3.521509E-2],"split_indices":[12,0,15,0,0,0,0],"sum_hessian":[1.507842E2,4.4293313E0,1.4635486E2,1.0337529E0,3.3955784E0,5.994189E1,8.641297E1],"tree_param":{"num_deleted":"0","num_feature":"20","num_nodes":"7","size_leaf_vector":"0"}},{"base_weights":[-1.1398082E-2,2.3377027E-1,-1.294759E-1,3.750797E-1,-6.0161656E-1,-2.5090036E-1,2.106266E-1],"default_left":[false,true,true,false,false,false,false],"id":84,"leaf_child_counts":[0,0,0,0,0,0,0],"left_children":[1,3,5,-1,-1,-1,-1],"loss_changes":[4.397799E0,6.0570755E0,4.2845845E0,0E0,0E0,0E0,0E0],"parents":[2147483647,0,0,1,1,2,2],"right_children":[2,4,6,-1,-1,-1,-1],"split_conditions":[-6.625438E-1,2.2546986E-1,8.67996E-1,1.1252391E-1,-1.8048498E-1,-7.527011E-2,6.318799E-2],"split_indices":[11,7,15,0,0,0,0],"sum_hessian":[1.4987015E2,4.8398716E1,1.0147143E2,4.1867626E1,6.5310864E0,7.496829E1,2.6503134E1],"tree_param":{"num_deleted":"0","num_feature":"20","num_nodes":"7","size_leaf_vector":"0"}},{"base_weights":[6.06954E-2,2.9205246E-2,8.557574E-1,8.727257E-1,-1.5826775E-3,1.8545573E0,9.971922E-2],"default_left":[true,false,false,false,false,false,false],"id":85,"leaf_child_counts":[0,0,0,0,0,0,0],"left_children":[1,3,5,-1,-1,-1,-1],"loss_changes":[3.634308E0,3.679414E0,3.993219E0,0E0,0E0,0E0,0E0],"parents":[2147483647,0,0,1,1,2,2],"right_children":[2,4,6,-1,-1,-1,-1],"split_conditions":[2.6071699E0,-2.5323124E0,2.8127556E0,2.6181772E-1,-4.7480327E-4,5.563672E-1,2.9915767E-2],"split_indices":[4,19,4,0,0,0,0],"sum_hessian":[1.451579E2,1.4062488E2,4.5330195E0,3.988993E0,1.3663588E2,1.3269697E0,3.20605E0],"tree_param":{"num_deleted":"0","num_feature":"20","num_nodes":"7","size_leaf_vector":"0"}},{"base_weights":[-5.28945E-2,3.402062E-1,-1.6668597E-1,6.037532E-1,-2.2983128E-1,-7.518456E-1,-8.425251E-2],"default_left":[false,false,false,false,false,false,false],"id":86,"leaf_child_counts":[0,0,0,0,0,0,0],"left_children":[1,3,5,-1,-1,-1,-1],"loss_changes":[6.7995415E0,5.2719173E0,5.607939E0,0E0,0E0,0E0,0E0],"parents":[2147483647,0,0,1,1,2,2],"right_children":[2,4,6,-1,-1,-1,-1],"split_conditions":[-8.9160013E-1,2.61764E-1,-5.514653E-1,1.8112597E-1,-6.894939E-2,-2.2555369E-1,-2.5275754E-2],"split_indices":[18,15,18,0,0,0,0],"sum_hessian":[1.4974014E2,3.316827E1,1.1657187E2,2.2641306E1,1.0526963E1,1.3391407E1,1.03180466E2],"tree_param":{"num_deleted":"0","num_feature":"20","num_nodes":"7","size_leaf_vector":"0"}},{"base_weights":[-3.316183E-2,-7.755141E-1,2.5010165E-3,-1.3471364E0,5.8232732E-2,4.0757705E-2,-5.1871186E-1],"default_left":[false,false,true,false,false,false,false],"id":87,"leaf_child_counts":[0,0,0,0,0,0,0],"left_children":[1,3,5,-1,-1,-1,-1],"loss_changes":[3.8711336E0,3.2727356E0,2.8216197E0,0E0,0E0,0E0,0E0],"parents":[2147483647,0,0,1,1,2,2],"right_children":[2,4,6,-1,-1,-1,-1],"split_conditions":[-2.3401842E0,-8.169452E-1,1.5624784E0,-4.0414092E-1,1.746982E-2,1.2227312E-2,-1.5561357E-1],"split_indices":[11,17,14,0,0,0,0],"sum_hessian":[1.4514851E2,5.702406E0,1.3944612E2,3.0176935E0,2.6847122E0,1.3076952E2,8.676596E0],"tree_param":{"num_deleted":"0","num_feature":"20","num_nodes":"7","size_leaf_vector":"0"}},{"base_weights":[6.751884E-2,-3.836316E-1,1.3246225E-1,-5.220408E-1,5.677588E-1,2.0759328E-1,-3.4441802E-1],"default_left":[true,true,true,false,false,false,false],"id":88,"leaf_child_counts":[0,0,0,0,0,0,0],"left_children":[1,3,5,-1,-1,-1,-1],"loss_changes":[4.483411E0,2.83706E0,4.836436E0,0E0,0E0,0E0,0E0],"parents":[2147483647,0,0,1,1,2,2],"right_children":[2,4,6,-1,-1,-1,-1],"split_conditions":[-1.9268112E0,9.0394926E-1,1.0894072E0,-1.5661225E-1,1.7032765E-1,6.2277984E-2,-1.0332541E-1],"split_indices":[16,3,10,0,0,0,0],"sum_hessian":[1.5028697E2,1.8294075E1,1.3199289E2,1.636462E1,1.9294544E0,1.1451594E2,1.7476952E1],"tree_param":{"num_deleted":"0","num_feature":"20","num_nodes":"7","size_leaf_vector":"0"}},{"base_weights":[1.9199962E-2,-4.914618E-2,2.9251128E-1,-1.1943115E-3,-8.6596036E-1,-1.6542879E-1,6.2155277E-1],"default_left":[false,false,true,false,false,false,false],"id":89,"leaf_child_counts":[0,0,0,0,0,0,0],"left_children":[1,3,5,-1,-1,-1,-1],"loss_changes":[2.7608352E0,4.6392756E0,4.5563364E0,0E0,0E0,0E0,0E0],"parents":[2147483647,0,0,1,1,2,2],"right_children":[2,4,6,-1,-1,-1,-1],"split_conditions":[2.6211934E0,2.9549787E0,-6.231239E-1,-3.5829347E-4,-2.5978813E-1,-4.9628638E-2,1.8646583E-1],"split_indices":[17,12,3,0,0,0,0],"sum_hessian":[1.4602852E2,1.17472664E2,2.8555855E1,1.11904655E2,5.5680094E0,1.21472645E1,1.640859E1],"tree_param":{"num_deleted":"0","num_feature":"20","num_nodes":"7","size_leaf_vector":"0"}}]},"name":"gbtree"},"learner_model_param":{"base_score":"5E-1","num_class":"0","num_feature":"20"},"objective":{"name":"binary:logistic","reg_loss_param":{"scale_pos_weight":"1"}}},"version":[1,2,0]}